<?xml version="1.0"?>
<opencv_storage>
<opencv_ml_svm>
  <format>3</format>
  <svmType>C_SVC</svmType>
  <kernel>
    <type>LINEAR</type></kernel>
  <C>1.</C>
  <term_criteria><epsilon>1.1920928955078125e-07</epsilon>
    <iterations>1000</iterations></term_criteria>
  <var_count>1100</var_count>
  <class_count>2</class_count>
  <class_labels type_id="opencv-matrix">
    <rows>2</rows>
    <cols>1</cols>
    <dt>i</dt>
    <data>
      -1 1</data></class_labels>
  <sv_total>1</sv_total>
  <support_vectors>
    <_>
      0. -4.15248144e-03 -1.63040138e-04 1.63372734e-03 0.
      1.34175466e-02 1.84377108e-03 1.63372734e-03 0. 7.91022647e-03
      1.04745792e-03 1.63372734e-03 0. -5.05990908e-03 8.85401969e-04
      1.63372734e-03 0. 1.97951309e-02 2.00385856e-03 1.63372734e-03 0.
      5.30336751e-03 2.01487239e-03 1.63372734e-03 0. 2.11975854e-02
      1.26457855e-03 1.63372734e-03 0. -2.77970266e-02 -3.16050835e-04
      1.63372734e-03 0. -8.69328724e-05 -5.47138043e-04 1.63372734e-03
      0. -2.98048202e-02 8.43749288e-03 1.63372734e-03 2.50981245e-02
      6.57268043e-04 9.45191272e-03 1.63372734e-03 2.50981245e-02
      -2.28700675e-02 9.77405533e-03 1.63372734e-03 2.94530857e-03
      -3.40218865e-03 8.04336555e-03 1.63372734e-03 -2.21528150e-02
      -1.35823684e-02 8.11239798e-03 1.63372734e-03 2.94530857e-03
      6.35429402e-04 9.40392446e-03 1.63372734e-03 0. 1.99880712e-02
      7.06198579e-03 1.63372734e-03 0. 1.43198669e-02 6.76186895e-03
      1.63372734e-03 2.94530857e-03 5.95042016e-03 6.65783323e-03
      1.63372734e-03 0. -6.12527039e-03 6.57680351e-03 1.63372734e-03
      2.94530857e-03 -2.00669430e-02 6.12662593e-03 1.63372734e-03 0.
      8.61253124e-03 5.26128104e-03 1.63372734e-03 2.50981245e-02
      3.29043120e-02 3.50758736e-03 1.63372734e-03 0. -1.42506491e-02
      2.61923089e-03 1.63372734e-03 2.50981245e-02 2.05203495e-03
      2.76928768e-03 1.63372734e-03 2.50981245e-02 -6.64157502e-04
      2.42315116e-03 1.63372734e-03 -2.21528150e-02 2.81634089e-02
      2.22707144e-03 1.63372734e-03 2.94530857e-03 1.18318088e-02
      2.46917410e-03 1.63372734e-03 -2.21528150e-02 1.44099388e-02
      2.46917410e-03 1.63372734e-03 2.50981245e-02 -1.15944417e-02
      1.88093504e-03 1.63372734e-03 0. 1.28222331e-02 1.11962750e-03
      1.63372734e-03 -2.21528150e-02 -2.96557471e-02 5.31388330e-04
      1.63372734e-03 -2.21528150e-02 1.59675151e-03 -2.52926926e-04
      1.63372734e-03 -2.21528150e-02 4.21284139e-03 -8.64170375e-04
      1.63372734e-03 -2.21528150e-02 -3.39628360e-03 -1.10627303e-03
      1.63372734e-03 2.50981245e-02 1.69910230e-02 -1.71752193e-03
      1.63372734e-03 -2.21528150e-02 1.20019251e-02 -2.30575935e-03
      1.63372734e-03 2.94530857e-03 1.85846351e-02 -2.91700638e-03
      1.63372734e-03 0. -1.61643710e-03 -3.50524369e-03 1.63372734e-03
      -2.21528150e-02 9.30893142e-03 -3.92040936e-03 1.63372734e-03
      -2.21528150e-02 2.29052622e-02 -4.31256695e-03 1.63372734e-03 0.
      -1.25718862e-02 -4.70472639e-03 1.63372734e-03 2.94530857e-03
      -9.02652927e-03 -5.09688398e-03 1.63372734e-03 2.94530857e-03
      -1.20056737e-02 -5.14290528e-03 1.63372734e-03 2.50981245e-02
      1.27972541e-02 -5.36199659e-03 1.63372734e-03 -2.21528150e-02
      2.16107834e-02 -5.97324362e-03 1.63372734e-03 -2.21528150e-02
      -3.07492241e-02 -6.58449065e-03 1.63372734e-03 -2.21528150e-02
      -7.56587135e-03 -7.19573768e-03 1.63372734e-03 -2.21528150e-02
      8.55451357e-03 -7.78397499e-03 1.63372734e-03 0. 1.84297399e-03
      -8.02607369e-03 1.63372734e-03 -2.21528150e-02 -2.89764497e-02
      -8.07209685e-03 1.63372734e-03 0. -2.33322401e-02 -8.29118490e-03
      1.63372734e-03 0. 1.08855765e-03 -8.33720528e-03 1.63372734e-03 0.
      -1.27510475e-02 -9.16754175e-03 1.63372734e-03 -2.21528150e-02
      -1.33637525e-03 -9.77879111e-03 1.63372734e-03 -2.21528150e-02
      -1.02140149e-02 -9.80179850e-03 1.63372734e-03 -2.21528150e-02
      2.71820277e-02 -1.06321350e-02 1.63372734e-03 0. 1.42008783e-02
      -1.04590673e-02 1.63372734e-03 0. -1.06401965e-02 -1.06551470e-02
      1.63372734e-03 0. 3.33549967e-03 -1.14394641e-02 1.63372734e-03
      -2.21528150e-02 6.56874338e-03 -1.18546309e-02 1.63372734e-03
      -2.21528150e-02 4.32404578e-02 -1.24198589e-02 1.63372734e-03 0.
      1.35485316e-02 -1.20276995e-02 1.63372734e-03 0. 8.21840391e-03
      -1.18546309e-02 1.63372734e-03 -2.21528150e-02 -5.06797014e-03
      -1.26389479e-02 1.63372734e-03 -2.21528150e-02 2.76211910e-02
      -1.28580369e-02 1.63372734e-03 -2.21528150e-02 -3.23926128e-04
      -1.28810471e-02 1.63372734e-03 0. 1.71509217e-02 -1.32732056e-02
      1.63372734e-03 -2.21528150e-02 1.18908100e-02 -1.38844540e-02
      1.63372734e-03 0. -7.89804105e-03 -1.32962167e-02 1.63372734e-03
      -2.21528150e-02 1.51442960e-02 -1.29270675e-02 1.63372734e-03
      -2.21528150e-02 3.37486155e-02 -1.32962167e-02 1.63372734e-03
      -2.21528150e-02 -1.91835109e-02 -1.29270675e-02 1.63372734e-03
      -2.21528150e-02 1.18551869e-03 -1.23388302e-02 1.63372734e-03
      -2.21528150e-02 -8.11713189e-03 -1.17505929e-02 1.63372734e-03 0.
      -3.79610844e-02 -1.17736030e-02 1.63372734e-03 -2.21528150e-02
      2.34795343e-02 -1.05971284e-02 1.63372734e-03 0. -1.49858063e-02
      -9.63974558e-03 1.63372734e-03 0. 2.84534954e-02 -9.00548510e-03
      1.63372734e-03 0. -1.05691981e-02 -8.44025891e-03 1.63372734e-03
      -2.21528150e-02 5.00320341e-04 -7.85202160e-03 1.63372734e-03 0.
      -3.48918661e-02 -6.28338894e-03 1.63372734e-03 -2.21528150e-02
      1.25101190e-02 -5.49907191e-03 1.63372734e-03 -2.21528150e-02
      -1.91675760e-02 -5.30299405e-03 1.63372734e-03 -2.21528150e-02
      1.02149439e-03 -4.71475674e-03 1.63372734e-03 0. 3.06524485e-02
      -3.29618296e-03 1.63372734e-03 -2.21528150e-02 1.96100660e-02
      -3.10010323e-03 1.63372734e-03 0. -9.12761316e-03 -2.46584462e-03
      1.63372734e-03 0. -1.11474060e-02 -2.07368704e-03 1.63372734e-03
      2.50981245e-02 -4.29133972e-04 -1.28936989e-03 1.63372734e-03 0.
      1.20579759e-02 -1.04727084e-03 1.63372734e-03 0. -1.81153079e-03
      -6.32101670e-04 1.63372734e-03 2.50981245e-02 1.87195558e-02
      -5.86082344e-04 1.63372734e-03 -2.21528150e-02 -2.10622903e-02
      3.94314528e-04 1.63372734e-03 2.50981245e-02 8.09627585e-03
      1.02857128e-03 1.63372734e-03 2.94530857e-03 -2.44864932e-04
      1.24766061e-03 1.63372734e-03 -2.21528150e-02 1.25111016e-02
      1.88191922e-03 1.63372734e-03 -2.21528150e-02 2.17594369e-03
      2.66623450e-03 1.63372734e-03 2.50981245e-02 -1.27040418e-02
      3.45054967e-03 1.63372734e-03 2.50981245e-02 1.17708379e-02
      4.03878884e-03 1.63372734e-03 2.50981245e-02 -1.79490186e-02
      4.80009289e-03 1.63372734e-03 -2.21528150e-02 8.48056190e-03
      5.21526393e-03 1.63372734e-03 2.50981245e-02 1.32124228e-02
      5.82651095e-03 1.63372734e-03 2.94530857e-03 -3.14554647e-02
      6.04560040e-03 1.63372734e-03 0. -6.95042487e-04 6.46076770e-03
      1.63372734e-03 2.50981245e-02 -2.80621331e-02 6.67985855e-03
      1.63372734e-03 2.94530857e-03 2.61125453e-02 6.55280799e-03
      1.63372734e-03 -2.21528150e-02 -5.88926300e-03 7.09502399e-03
      1.63372734e-03 0. 2.78892536e-02 6.74888771e-03 1.63372734e-03
      -2.21528150e-02 4.62078424e-05 6.62184041e-03 1.63372734e-03
      2.94530857e-03 -7.25277141e-03 6.29871199e-03 1.63372734e-03
      2.50981245e-02 2.53122915e-02 6.14865543e-03 1.63372734e-03
      2.50981245e-02 -3.09812948e-02 5.84853441e-03 1.63372734e-03 0.
      -1.10824138e-03 5.52540924e-03 1.63372734e-03 0. -1.24169067e-02
      5.72148897e-03 1.63372734e-03 2.50981245e-02 1.52361514e-02
      5.02921268e-03 1.63372734e-03 2.94530857e-03 -2.30710711e-02
      5.05222380e-03 1.63372734e-03 2.50981245e-02 -1.36964340e-02
      4.57903510e-03 1.63372734e-03 -2.21528150e-02 -2.06581340e-03
      4.23289835e-03 1.63372734e-03 2.50981245e-02 3.00941849e-03
      3.71369021e-03 1.63372734e-03 0. -8.11516400e-03 3.56363342e-03
      1.63372734e-03 -2.21528150e-02 1.20278867e-02 3.43658449e-03
      1.63372734e-03 -2.21528150e-02 -3.83422300e-02 3.45959584e-03
      1.63372734e-03 0. -8.44025891e-03 2.91737984e-03 1.63372734e-03
      2.94530857e-03 -2.65287817e-03 2.57124333e-03 1.63372734e-03
      2.94530857e-03 3.12231621e-03 2.61725904e-03 1.63372734e-03
      -2.21528150e-02 -3.39814834e-02 2.24811467e-03 1.63372734e-03
      2.50981245e-02 6.28062338e-03 2.27112253e-03 1.63372734e-03 0.
      1.67188346e-02 2.29413388e-03 1.63372734e-03 1.15274916e-05
      1.15274916e-05 3.22837918e-03 -1.65110510e-02 1.15274916e-05
      1.15274916e-05 1.15274916e-05 1.15274916e-05 1.28328819e-02
      1.15274916e-05 1.15274916e-05 1.15274916e-05 1.13767497e-02
      -2.06234138e-02 -2.12025288e-02 1.13767497e-02 -2.94831190e-02
      1.13767497e-02 1.13767497e-02 1.18830311e-03 1.13767497e-02
      1.13767497e-02 -4.89453152e-02 1.13767497e-02 1.34790745e-02
      -3.23299617e-02 3.87874723e-04 1.34790745e-02 -3.47823873e-02
      1.34790745e-02 1.34790745e-02 -9.46021080e-02 1.34790745e-02
      1.34790745e-02 -1.05687320e-01 1.34790745e-02 8.36127345e-03
      -3.36879380e-02 8.36127345e-03 8.36127345e-03 -4.20797840e-02
      8.36127345e-03 8.36127345e-03 -7.13980719e-02 8.36127345e-03
      8.36127345e-03 -8.71457905e-02 8.36127345e-03 5.95418876e-03
      -3.51706706e-02 5.95418876e-03 5.95418876e-03 -6.95332140e-02
      6.67492487e-03 5.95418876e-03 -8.59119818e-02 4.01411913e-02
      5.95418876e-03 -1.42664269e-01 8.37257579e-02 -3.15688848e-02
      -9.57900435e-02 6.69254269e-03 -3.15688848e-02 2.80053075e-02
      3.22837420e-02 -3.15688848e-02 -1.28514618e-01 1.15989394e-01
      -3.15688848e-02 6.72901273e-02 1.26296431e-01 -3.22418734e-02
      5.02762757e-02 -3.22418734e-02 -3.22418734e-02 1.32303700e-01
      -3.22418734e-02 -3.22418734e-02 7.22773448e-02 8.60735774e-02
      -1.35199919e-01 9.59013253e-02 -2.87512969e-02 6.78334152e-03
      -4.54830080e-02 1.95791759e-02 6.78334152e-03 -1.85913499e-02
      6.78334152e-03 6.78334152e-03 -3.43602039e-02 6.78334152e-03
      6.78334152e-03 7.51359016e-03 6.78334152e-03 -8.79449025e-03
      -1.60943288e-02 4.94852755e-03 4.94852755e-03 -5.67337312e-02
      4.94852755e-03 4.94852755e-03 1.56526398e-02 4.94852755e-03
      4.94852755e-03 -1.15318727e-02 4.94852755e-03 5.17000025e-03
      -6.29540086e-02 5.17000025e-03 5.17000025e-03 -5.42479306e-02
      5.17000025e-03 5.17000025e-03 -3.28840315e-02 5.17000025e-03
      5.17000025e-03 -3.46191041e-02 5.17000025e-03 2.06231908e-03
      -3.50195393e-02 2.06231908e-03 2.06231908e-03 -3.19107957e-02
      2.06231908e-03 2.06231908e-03 -2.22391281e-02 2.06231908e-03
      2.06231908e-03 -9.27234534e-03 2.06231908e-03 6.12347620e-03
      -5.25393113e-02 6.12347620e-03 6.12347620e-03 -8.66758898e-02
      1.23863257e-02 6.12347620e-03 -2.17436231e-03 6.12347620e-03
      -7.54190842e-03 -1.47199882e-02 6.12347620e-03 4.36245231e-03
      -1.06879584e-01 6.13856688e-02 4.36245231e-03 -1.99375581e-03
      6.44108579e-02 2.20308499e-03 -7.72253573e-02 4.36245231e-03
      4.36245231e-03 -1.36679590e-01 4.36245231e-03 2.19746903e-02
      6.04881532e-03 2.19746903e-02 -7.66834170e-02 2.19746903e-02
      -8.49621892e-02 2.19746903e-02 -7.31399581e-02 2.19746903e-02
      -3.66313220e-03 2.19746903e-02 2.19746903e-02 7.96975940e-03
      -2.08092248e-03 7.96975940e-03 7.96975940e-03 7.96975940e-03
      7.96975940e-03 7.96975940e-03 -3.10291648e-02 7.96975940e-03
      -2.04149187e-02 -1.92313511e-02 7.96975940e-03 -1.66065767e-02
      -5.34622604e-03 1.30482651e-02 1.30482651e-02 -4.05378528e-02
      1.30482651e-02 -3.28425616e-02 -2.64928434e-02 1.30482651e-02
      1.30482651e-02 -3.89583074e-02 1.30482651e-02 5.84859960e-03
      -5.14239781e-02 5.84859960e-03 5.84859960e-03 -5.45157567e-02
      5.84859960e-03 5.84859960e-03 -3.24291289e-02 5.84859960e-03
      5.84859960e-03 -3.68997976e-02 5.84859960e-03 5.96220698e-03
      -4.49754260e-02 -1.92903506e-03 3.71612683e-02 -3.92926671e-02
      -1.92903506e-03 -1.92903506e-03 -3.60726640e-02 -1.92903506e-03
      -1.92903506e-03 -3.66178267e-02 -1.92903506e-03 2.91681569e-02
      -1.59739032e-02 7.11279595e-03 -6.53660744e-02 -1.78238396e-02
      7.11279595e-03 7.11279595e-03 -2.97363605e-02 7.11279595e-03
      7.11279595e-03 -3.26337405e-02 7.11279595e-03 -5.64306080e-02
      -6.00615330e-02 2.12423969e-02 1.55241238e-02 -9.15917605e-02
      2.12423969e-02 2.12423969e-02 -5.30688725e-02 2.12423969e-02
      2.12423969e-02 -8.76779929e-02 2.12423969e-02 -2.91396864e-03
      -4.23353501e-02 -1.69853605e-02 3.34619209e-02 1.01893254e-01
      3.44657935e-02 -1.74813028e-02 -5.85226081e-02 -1.74813028e-02
      -1.74813028e-02 6.27268627e-02 -1.74813028e-02 -1.93690858e-03
      -3.29536237e-02 9.71186068e-03 -3.83721776e-02 -8.71449360e-04
      9.71186068e-03 9.71186068e-03 9.71186068e-03 9.71186068e-03
      9.71186068e-03 -6.10880181e-03 9.71186068e-03 2.13181879e-02
      -5.26860841e-02 2.13181879e-02 2.13181879e-02 -6.77545741e-02
      2.13181879e-02 2.13181879e-02 -1.14774898e-01 2.13181879e-02
      2.13181879e-02 -1.23798475e-01 2.13181879e-02 -1.30831951e-03
      -3.61405015e-02 5.61622297e-03 5.61622297e-03 -4.79504503e-02
      5.61622297e-03 5.61622297e-03 -5.95122688e-02 5.61622297e-03
      5.61622297e-03 -5.28554134e-02 5.61622297e-03 5.76780585e-04
      -2.44170520e-02 5.76780585e-04 5.76780585e-04 -9.75928362e-03
      5.76780585e-04 5.76780585e-04 -2.73238085e-02 5.76780585e-04
      5.76780585e-04 -9.73504223e-03 5.76780585e-04 2.38031818e-04
      -7.21173082e-03 2.38031818e-04 2.38031818e-04 -1.36626177e-02
      2.38031818e-04 2.38031818e-04 -7.67992996e-03 2.38031818e-04
      2.38031818e-04 -1.62434317e-02 2.38031818e-04 2.13758845e-04
      -1.23656606e-02 2.13758845e-04 2.13758845e-04 -1.05334539e-02
      2.13758845e-04 2.13758845e-04 -2.22797859e-02 2.13758845e-04
      2.13758845e-04 7.65085779e-03 2.13758845e-04 -1.37442502e-03
      1.57764961e-03 -1.37442502e-03 -1.37442502e-03 8.08574911e-03
      -1.37442502e-03 -1.37442502e-03 3.55018415e-02 -1.37442502e-03
      -1.37442502e-03 1.53206848e-02 -1.37442502e-03 -7.02886959e-04
      -7.02886959e-04 -7.02886959e-04 -1.28478315e-02 -7.67414831e-03
      -7.02886959e-04 -7.02886959e-04 -7.02886959e-04 2.91927624e-02
      -7.02886959e-04 -7.02886959e-04 -7.02886959e-04 1.05589498e-02
      -1.94311962e-02 -1.64891556e-02 1.05589498e-02 -2.33241897e-02
      1.05589498e-02 1.05589498e-02 -5.98604511e-03 1.74587984e-02
      1.05589498e-02 -5.45134582e-02 1.05589498e-02 1.09031657e-02
      -2.64404081e-02 4.80568781e-03 1.09031657e-02 -3.18122283e-02
      1.09031657e-02 1.09031657e-02 -9.30669680e-02 1.09031657e-02
      1.09031657e-02 -9.40162912e-02 1.09031657e-02 8.80813412e-03
      -3.15477923e-02 8.80813412e-03 8.80813412e-03 -4.10736054e-02
      8.80813412e-03 8.80813412e-03 -7.11134970e-02 8.80813412e-03
      8.80813412e-03 -9.51227769e-02 8.80813412e-03 7.27252755e-03
      -3.64539400e-02 7.27252755e-03 7.27252755e-03 -6.94118589e-02
      7.27252755e-03 7.27252755e-03 -9.17582288e-02 3.72529812e-02
      7.27252755e-03 -1.43565491e-01 8.35023671e-02 -3.06577627e-02
      -8.92897099e-02 4.46952041e-03 -3.06577627e-02 3.21028903e-02
      1.97932255e-02 -3.06577627e-02 -1.26994863e-01 1.16849348e-01
      -3.06577627e-02 6.94401041e-02 1.23901933e-01 -3.16662937e-02
      6.08551279e-02 -3.16662937e-02 -3.16662937e-02 1.33021042e-01
      -3.16662937e-02 -3.16662937e-02 7.57226273e-02 7.04555362e-02
      -1.32197380e-01 9.63220596e-02 -3.51821296e-02 5.42622944e-03
      -3.61387879e-02 2.49358639e-02 5.42622944e-03 -1.78004559e-02
      5.42622944e-03 5.42622944e-03 -3.11976410e-02 5.42622944e-03
      5.42622944e-03 1.00208702e-03 5.42622944e-03 -7.06751226e-03
      -1.82981957e-02 5.97010972e-03 5.97010972e-03 -6.57327473e-02
      5.97010972e-03 5.97010972e-03 7.75317708e-03 5.97010972e-03
      5.97010972e-03 -1.96096711e-02 5.97010972e-03 4.98161651e-03
      -6.67347535e-02 4.98161651e-03 4.98161651e-03 -5.01023531e-02
      4.98161651e-03 4.98161651e-03 -3.29865515e-02 4.98161651e-03
      4.98161651e-03 -3.72698195e-02 4.98161651e-03 2.92005134e-03
      -3.92871201e-02 2.92005134e-03 2.92005134e-03 -4.38104235e-02
      2.92005134e-03 2.92005134e-03 -2.87474096e-02 2.92005134e-03
      2.92005134e-03 -1.55763216e-02 2.92005134e-03 7.24242581e-03
      -6.25344738e-02 7.24242581e-03 7.24242581e-03 -9.16664079e-02
      1.27828568e-02 7.24242581e-03 -8.33454356e-03 7.24242581e-03
      -5.56444330e-03 -1.73804108e-02 7.24242581e-03 5.65015292e-03
      -1.03642389e-01 6.29248098e-02 5.65015292e-03 2.01327284e-03
      6.78935349e-02 5.63620403e-03 -8.75944421e-02 5.65015292e-03
      5.65015292e-03 -1.47328034e-01 5.65015292e-03 3.08995061e-02
      7.22679470e-05 2.35562045e-02 -9.85019654e-02 3.08995061e-02
      -7.89362788e-02 7.06799095e-03 -7.79448301e-02 3.08995061e-02
      -2.74248011e-02 3.08995061e-02 3.08995061e-02 8.04259349e-03
      -5.54595608e-04 8.04259349e-03 8.04259349e-03 8.04259349e-03
      8.04259349e-03 8.04259349e-03 -2.81867404e-02 8.04259349e-03
      -2.17748228e-02 -2.20691729e-02 8.04259349e-03 -1.09201744e-02
      -7.49729201e-03 1.41801629e-02 1.41801629e-02 -5.21111973e-02
      1.41801629e-02 -3.35485227e-02 -3.03281415e-02 1.41801629e-02
      1.41801629e-02 -4.44353633e-02 1.41801629e-02 7.56864622e-03
      -5.87562397e-02 7.56864622e-03 7.56864622e-03 -6.70830235e-02
      7.56864622e-03 7.56864622e-03 -3.98022495e-02 7.56864622e-03
      7.56864622e-03 -4.32755202e-02 7.56864622e-03 7.74547365e-03
      -5.47061227e-02 -1.14091719e-03 3.88383791e-02 -4.32796404e-02
      -1.14091719e-03 -1.14091719e-03 -4.13336456e-02 -1.14091719e-03
      -1.14091719e-03 -4.34517078e-02 -1.14091719e-03 2.84254532e-02
      -2.11245697e-02 7.29975849e-03 -6.14502504e-02 -2.28049941e-02
      7.29975849e-03 7.29975849e-03 -3.64348553e-02 7.29975849e-03
      7.29975849e-03 -3.50682065e-02 7.29975849e-03 -6.13660216e-02
      -7.22053051e-02 2.69482452e-02 8.76475032e-03 -1.03987545e-01
      2.69482452e-02 2.69482452e-02 -6.04357570e-02 2.69482452e-02
      2.69482452e-02 -9.57386419e-02 2.69482452e-02 -3.51964775e-03
      -5.04130572e-02 -2.02129558e-02 3.00303437e-02 9.78906900e-02
      3.57408486e-02 -1.60808209e-02 -6.87253028e-02 -1.60808209e-02
      -1.60808209e-02 8.15504044e-02 -1.60808209e-02</_></support_vectors>
  <uncompressed_sv_total>2</uncompressed_sv_total>
  <uncompressed_support_vectors>
    <_>
      0. 7.22100139e-02 9.60428733e-03 2.52557173e-02 0. 4.98000085e-02
      1.03157163e-02 2.52557173e-02 0. 1.31614301e-02 1.31614301e-02
      2.52557173e-02 0. 4.90885787e-02 1.67185739e-02 2.52557173e-02 0.
      5.44242933e-02 1.88528597e-02 2.52557173e-02 0. 8.50157291e-02
      2.20542885e-02 2.52557173e-02 0. 1.24500021e-02 2.56114323e-02
      2.52557173e-02 0. 7.04314411e-02 2.84571461e-02 2.52557173e-02 0.
      3.80614325e-02 3.09471469e-02 2.52557173e-02 0. 7.57671520e-02
      3.34371477e-02 2.52557173e-02 0. 1.06714305e-03 3.69942896e-02
      2.52557173e-02 0. 5.86928651e-02 4.19742912e-02 2.52557173e-02
      4.55314368e-02 6.86528683e-02 4.55314368e-02 2.52557173e-02
      4.55314368e-02 4.16185781e-02 4.65985797e-02 2.52557173e-02
      4.55314368e-02 6.43842965e-02 4.83771488e-02 2.52557173e-02 0.
      2.84571480e-03 5.15785776e-02 2.52557173e-02 0. 3.34371477e-02
      5.30014373e-02 2.52557173e-02 4.55314368e-02 7.11428653e-03
      5.44242933e-02 2.52557173e-02 0. 7.50557259e-02 5.62028661e-02
      2.52557173e-02 4.55314368e-02 5.65585792e-02 5.83371520e-02
      2.52557173e-02 0. 2.09871456e-02 6.01157248e-02 2.52557173e-02 0.
      1.45842880e-02 6.33171499e-02 2.52557173e-02 0. 3.73500064e-02
      6.47400096e-02 2.52557173e-02 0. 7.71900117e-02 6.40285835e-02
      2.52557173e-02 0. 4.12628651e-02 6.47400096e-02 2.52557173e-02
      4.55314368e-02 1.70742888e-02 6.47400096e-02 2.52557173e-02
      4.55314368e-02 1.31614301e-02 6.54514357e-02 2.52557173e-02
      4.55314368e-02 4.69542928e-02 6.54514357e-02 2.52557173e-02 0.
      8.75057280e-02 6.54514357e-02 2.52557173e-02 0. 2.24100035e-02
      6.58071563e-02 2.52557173e-02 4.55314368e-02 8.11028704e-02
      6.58071563e-02 2.52557173e-02 4.55314368e-02 3.98400053e-02
      6.58071563e-02 2.52557173e-02 4.55314368e-02 5.30014373e-02
      6.54514357e-02 2.52557173e-02 4.55314368e-02 3.23700048e-02
      6.47400096e-02 2.52557173e-02 0. 6.26057237e-02 6.43842965e-02
      2.52557173e-02 4.55314368e-02 3.09471469e-02 6.43842965e-02
      2.52557173e-02 4.55314368e-02 5.08671515e-02 6.40285835e-02
      2.52557173e-02 0. 8.11028704e-02 6.40285835e-02 2.52557173e-02
      4.55314368e-02 6.50957227e-02 6.36728629e-02 2.52557173e-02
      4.55314368e-02 8.53714440e-03 6.36728629e-02 2.52557173e-02 0.
      6.93642944e-02 6.36728629e-02 2.52557173e-02 4.55314368e-02
      4.23300080e-02 6.36728629e-02 2.52557173e-02 4.55314368e-02
      6.29614368e-02 6.29614368e-02 2.52557173e-02 0. 3.41485776e-02
      6.26057237e-02 2.52557173e-02 4.55314368e-02 2.49000043e-02
      6.22500107e-02 2.52557173e-02 4.55314368e-02 6.72300085e-02
      6.18942939e-02 2.52557173e-02 4.55314368e-02 6.79414421e-02
      6.15385808e-02 2.52557173e-02 4.55314368e-02 2.31214315e-02
      6.15385808e-02 2.52557173e-02 0. 8.60828683e-02 6.08271509e-02
      2.52557173e-02 4.55314368e-02 8.85728672e-02 6.01157248e-02
      2.52557173e-02 0. 6.36728629e-02 5.97600080e-02 2.52557173e-02 0.
      4.41085771e-02 5.90485819e-02 2.52557173e-02 0. 3.62828635e-02
      5.83371520e-02 2.52557173e-02 4.55314368e-02 6.11828677e-02
      5.79814389e-02 2.52557173e-02 4.55314368e-02 3.91285755e-02
      5.76257221e-02 2.52557173e-02 4.55314368e-02 2.31214315e-02
      5.69142923e-02 2.52557173e-02 0. 5.58471493e-02 5.65585792e-02
      2.52557173e-02 0. 3.55714336e-02 5.65585792e-02 2.52557173e-02 0.
      5.76257221e-02 5.65585792e-02 2.52557173e-02 4.55314368e-02
      3.48600037e-02 5.62028661e-02 2.52557173e-02 4.55314368e-02
      4.62428620e-03 5.65585792e-02 2.52557173e-02 0. 2.45442893e-02
      5.65585792e-02 2.52557173e-02 0. 3.30814347e-02 5.62028661e-02
      2.52557173e-02 4.55314368e-02 2.77457181e-02 5.62028661e-02
      2.52557173e-02 4.55314368e-02 1.77857168e-02 5.58471493e-02
      2.52557173e-02 4.55314368e-02 7.68342987e-02 5.54914363e-02
      2.52557173e-02 0. 1.42285740e-03 5.54914363e-02 2.52557173e-02
      4.55314368e-02 4.98000067e-03 5.51357232e-02 2.52557173e-02 0.
      5.37128635e-02 5.51357232e-02 2.52557173e-02 4.55314368e-02
      7.04314411e-02 5.47800064e-02 2.52557173e-02 4.55314368e-02
      3.55714350e-04 5.51357232e-02 2.52557173e-02 4.55314368e-02
      8.53714421e-02 5.47800064e-02 2.52557173e-02 4.55314368e-02
      1.52957169e-02 5.47800064e-02 2.52557173e-02 4.55314368e-02
      5.33571504e-02 5.47800064e-02 2.52557173e-02 0. 8.60828683e-02
      5.44242933e-02 2.52557173e-02 4.55314368e-02 2.34771464e-02
      5.44242933e-02 2.52557173e-02 0. 8.96400139e-02 5.40685803e-02
      2.52557173e-02 0. 6.40285807e-03 5.47800064e-02 2.52557173e-02 0.
      2.45442893e-02 5.44242933e-02 2.52557173e-02 4.55314368e-02
      4.41085771e-02 5.44242933e-02 2.52557173e-02 0. 7.89685845e-02
      5.44242933e-02 2.52557173e-02 4.55314368e-02 2.66785752e-02
      5.44242933e-02 2.52557173e-02 4.55314368e-02 5.83371520e-02
      5.44242933e-02 2.52557173e-02 4.55314368e-02 3.09471469e-02
      5.44242933e-02 2.52557173e-02 0. 3.13028619e-02 5.51357232e-02
      2.52557173e-02 4.55314368e-02 5.76257221e-02 5.51357232e-02
      2.52557173e-02 0. 2.56114323e-02 5.58471493e-02 2.52557173e-02 0.
      3.37928608e-02 5.58471493e-02 2.52557173e-02 0. 1.45842880e-02
      5.58471493e-02 2.52557173e-02 0. 4.09071483e-02 5.65585792e-02
      2.52557173e-02 0. 7.50557259e-02 5.69142923e-02 2.52557173e-02 0.
      1.42285740e-03 5.76257221e-02 2.52557173e-02 4.55314368e-02
      7.75457248e-02 5.76257221e-02 2.52557173e-02 0. 3.91285773e-03
      5.83371520e-02 2.52557173e-02 4.55314368e-02 8.71500149e-02
      5.86928651e-02 2.52557173e-02 4.55314368e-02 2.06314325e-02
      5.94042949e-02 2.52557173e-02 4.55314368e-02 2.45442893e-02
      5.94042949e-02 2.52557173e-02 0. 3.09471469e-02 5.94042949e-02
      2.52557173e-02 0. 3.34371477e-02 5.94042949e-02 2.52557173e-02 0.
      8.32371563e-02 5.90485819e-02 2.52557173e-02 4.55314368e-02
      5.22900075e-02 5.94042949e-02 2.52557173e-02 0. 3.45042907e-02
      5.97600080e-02 2.52557173e-02 4.55314368e-02 8.35928693e-02
      6.01157248e-02 2.52557173e-02 0. 8.92843008e-02 6.04714379e-02
      2.52557173e-02 0. 6.93642944e-02 6.08271509e-02 2.52557173e-02
      4.55314368e-02 3.55714327e-03 6.18942939e-02 2.52557173e-02
      4.55314368e-02 4.23300080e-02 6.11828677e-02 2.52557173e-02 0.
      7.11428700e-04 6.18942939e-02 2.52557173e-02 4.55314368e-02
      7.04314411e-02 6.29614368e-02 2.52557173e-02 4.55314368e-02
      5.76257221e-02 6.40285835e-02 2.52557173e-02 0. 3.05914339e-02
      6.47400096e-02 2.52557173e-02 0. 7.57671520e-02 6.61628693e-02
      2.52557173e-02 0. 7.68342987e-02 6.72300085e-02 2.52557173e-02 0.
      3.84171493e-02 6.72300085e-02 2.52557173e-02 0. 2.13428610e-03
      6.86528683e-02 2.52557173e-02 4.55314368e-02 8.89285877e-02
      6.90085813e-02 2.52557173e-02 0. 3.37928608e-02 7.07871541e-02
      2.52557173e-02 4.55314368e-02 7.47000100e-03 7.14985803e-02
      2.52557173e-02 0. 7.68342987e-02 7.25657269e-02 2.52557173e-02 0.
      4.12628651e-02 7.32771531e-02 2.52557173e-02 4.55314368e-02
      1.31614301e-02 7.43442997e-02 2.52557173e-02 4.55314368e-02
      8.92843008e-02 7.47000128e-02 2.52557173e-02 0. 5.44242933e-02
      7.54114389e-02 2.52557173e-02 4.55314368e-02 7.11428672e-02
      7.61228651e-02 2.52557173e-02 4.55314368e-02 2.09871456e-02
      7.68342987e-02 2.52557173e-02 4.55314368e-02 8.39485824e-02
      7.71900117e-02 2.52557173e-02 0. 3.34371477e-02 7.75457248e-02
      2.52557173e-02 0. 3.41485776e-02 7.79014379e-02 2.52557173e-02
      2.90908635e-01 2.90908635e-01 2.84296930e-01 2.90908635e-01
      2.90908635e-01 2.90908635e-01 2.90908635e-01 2.90908635e-01
      2.64556468e-01 2.90908635e-01 2.90908635e-01 2.90908635e-01
      3.08052689e-01 2.24502027e-01 2.48846993e-01 3.08052689e-01
      1.83371574e-01 3.08052689e-01 3.08052689e-01 3.08052689e-01
      3.08052689e-01 3.08052689e-01 3.02983761e-01 3.08052689e-01
      3.27684253e-01 9.29942131e-02 3.27684253e-01 3.27684253e-01
      8.73816907e-02 3.27684253e-01 3.27684253e-01 2.44886488e-01
      3.27684253e-01 3.27684253e-01 2.47905686e-01 3.27684253e-01
      3.35184932e-01 8.51683095e-02 3.35184932e-01 3.35184932e-01
      1.08449183e-01 3.35184932e-01 3.35184932e-01 1.78850666e-01
      3.35184932e-01 3.35184932e-01 2.16464937e-01 3.35184932e-01
      3.39717060e-01 1.02977827e-01 3.39717060e-01 3.39717060e-01
      1.85897335e-01 3.38235706e-01 3.39717060e-01 2.10574284e-01
      2.69451350e-01 3.39717060e-01 3.32720131e-01 1.79870501e-01
      3.79773766e-01 2.52625108e-01 3.01133752e-01 3.79773766e-01
      2.57328898e-01 2.48535290e-01 3.79773766e-01 3.10985625e-01
      7.64922053e-02 3.79773766e-01 1.76585466e-01 5.53078130e-02
      3.83148104e-01 2.13545740e-01 3.83148104e-01 3.83148104e-01
      4.49519902e-02 3.83148104e-01 3.83148104e-01 1.68326199e-01
      1.02893405e-01 3.83148104e-01 1.19771019e-01 1.20287657e-01
      3.06371212e-01 2.48651057e-01 2.70151347e-01 3.06371212e-01
      2.88101733e-01 3.06371212e-01 3.06371212e-01 2.71642357e-01
      3.06371212e-01 3.06371212e-01 2.19758898e-01 3.06371212e-01
      3.38496268e-01 1.72090188e-01 3.38496268e-01 3.38496268e-01
      1.87409580e-01 3.38496268e-01 3.38496268e-01 8.91631022e-02
      3.38496268e-01 3.38496268e-01 8.53976384e-02 3.38496268e-01
      3.41691524e-01 1.52002126e-01 3.41691524e-01 3.41691524e-01
      1.35803103e-01 3.41691524e-01 3.41691524e-01 8.80035609e-02
      3.41691524e-01 3.41691524e-01 1.15193471e-01 3.41691524e-01
      3.48069519e-01 9.71735641e-02 3.48069519e-01 3.48069519e-01
      9.60935876e-02 3.48069519e-01 3.48069519e-01 8.08493868e-02
      3.48069519e-01 3.48069519e-01 4.57164571e-02 3.48069519e-01
      3.43310088e-01 1.32440045e-01 3.43310088e-01 3.43310088e-01
      2.02552393e-01 3.30437839e-01 3.43310088e-01 2.82509513e-02
      3.43310088e-01 3.43310088e-01 5.46064079e-02 3.43310088e-01
      3.39929193e-01 2.38080025e-01 2.22727433e-01 3.39929193e-01
      1.60709709e-01 2.16509655e-01 3.39929193e-01 1.71043247e-01
      3.39929193e-01 3.39929193e-01 3.08290601e-01 3.39929193e-01
      2.90650666e-01 2.65576690e-01 2.90650666e-01 2.90650666e-01
      2.90650666e-01 2.85983682e-01 2.90650666e-01 2.90650666e-01
      2.90650666e-01 2.90650666e-01 2.90650666e-01 2.90650666e-01
      2.89271683e-01 2.89271683e-01 2.89271683e-01 2.89271683e-01
      2.89271683e-01 2.89271683e-01 2.89271683e-01 2.89271683e-01
      2.89271683e-01 2.89271683e-01 2.76857466e-01 2.89271683e-01
      3.35388303e-01 1.82310373e-01 3.35388303e-01 3.35388303e-01
      1.65428698e-01 3.35388303e-01 3.35388303e-01 1.51236072e-01
      3.35388303e-01 3.35388303e-01 1.15283482e-01 3.35388303e-01
      3.39371771e-01 1.38656139e-01 3.39371771e-01 3.39371771e-01
      1.85357302e-01 3.39371771e-01 3.39371771e-01 8.84621590e-02
      3.39371771e-01 3.39371771e-01 1.17538489e-01 3.39371771e-01
      3.40302795e-01 1.30894274e-01 3.56521934e-01 2.76178300e-01
      9.50517729e-02 3.56521934e-01 3.56521934e-01 9.33062509e-02
      3.56521934e-01 3.56521934e-01 8.26791972e-02 3.56521934e-01
      2.35288158e-01 4.60967645e-02 3.62972826e-01 3.62972826e-01
      5.89955039e-02 3.62972826e-01 3.62972826e-01 6.91748112e-02
      3.62972826e-01 3.62972826e-01 9.15288702e-02 3.62972826e-01
      3.18952560e-01 1.38566315e-01 3.43687207e-01 1.86430603e-01
      2.34182447e-01 3.43687207e-01 3.43687207e-01 1.31633639e-01
      3.43687207e-01 3.43687207e-01 2.44916588e-01 3.43687207e-01
      1.50983751e-01 2.35065967e-01 3.54187399e-01 1.26128450e-01
      1.32567793e-01 2.71153748e-01 3.77922386e-01 3.02234113e-01
      3.77922386e-01 3.77922386e-01 1.51887819e-01 3.77922386e-01
      2.99873680e-01 2.99873680e-01 2.99873680e-01 2.99873680e-01
      1.46133661e-01 2.99873680e-01 2.99873680e-01 2.99873680e-01
      2.99873680e-01 2.99873680e-01 2.76416957e-01 2.99873680e-01
      3.07151616e-01 1.54337272e-01 3.07151616e-01 3.07151616e-01
      1.72307476e-01 3.07151616e-01 3.07151616e-01 3.07151616e-01
      3.07151616e-01 3.07151616e-01 3.07151616e-01 3.07151616e-01
      3.42917562e-01 9.72791165e-02 3.42917562e-01 3.42917562e-01
      1.08785361e-01 3.42917562e-01 3.42917562e-01 1.45008162e-01
      3.42917562e-01 3.42917562e-01 1.16229609e-01 3.42917562e-01
      3.51743579e-01 5.09021506e-02 3.51743579e-01 3.51743579e-01
      2.07198635e-02 3.51743579e-01 3.51743579e-01 5.68631031e-02
      3.51743579e-01 3.51743579e-01 2.10597739e-02 3.51743579e-01
      3.52437109e-01 1.50623191e-02 3.52437109e-01 3.52437109e-01
      3.01235784e-02 3.52437109e-01 3.52437109e-01 1.75409429e-02
      3.52437109e-01 3.52437109e-01 3.66281904e-02 3.52437109e-01
      3.49476695e-01 2.87969075e-02 3.49476695e-01 3.49476695e-01
      6.35912269e-02 3.49476695e-01 3.49476695e-01 5.54207303e-02
      3.49476695e-01 3.49476695e-01 1.07200935e-01 3.49476695e-01
      3.51673931e-01 6.10420555e-02 3.51673931e-01 3.51673931e-01
      2.27128342e-02 3.51673931e-01 3.51673931e-01 5.30503653e-02
      3.51673931e-01 3.51673931e-01 5.78464242e-03 3.51673931e-01
      2.92872161e-01 2.92872161e-01 2.92872161e-01 2.92872161e-01
      2.92872161e-01 2.92872161e-01 2.92872161e-01 2.92872161e-01
      2.31426612e-01 2.92872161e-01 2.92872161e-01 2.92872161e-01
      3.12517494e-01 2.14326486e-01 2.49190986e-01 3.12517494e-01
      1.62538365e-01 3.12517494e-01 3.12517494e-01 3.10307503e-01
      2.98335999e-01 3.12517494e-01 3.01874578e-01 3.12517494e-01
      3.31404448e-01 7.76365623e-02 3.31404448e-01 3.31404448e-01
      7.77855143e-02 3.31404448e-01 3.31404448e-01 2.37616315e-01
      3.31404448e-01 3.31404448e-01 2.22526118e-01 3.31404448e-01
      3.34307998e-01 7.73517415e-02 3.34307998e-01 3.34307998e-01
      9.78460982e-02 3.34307998e-01 3.34307998e-01 1.78177103e-01
      3.34307998e-01 3.34307998e-01 2.35075936e-01 3.34307998e-01
      3.37089449e-01 9.67328325e-02 3.37089449e-01 3.37089449e-01
      1.80911601e-01 3.37089449e-01 3.37089449e-01 2.25186348e-01
      2.75469601e-01 3.37089449e-01 3.37089449e-01 1.80411667e-01
      3.77765357e-01 2.44043410e-01 3.05567056e-01 3.77765357e-01
      2.48771250e-01 2.74071723e-01 3.77765357e-01 3.10964882e-01
      7.45889693e-02 3.77765357e-01 1.72030807e-01 6.00935444e-02
      3.85566205e-01 1.95403770e-01 3.85566205e-01 3.85566205e-01
      4.70787138e-02 3.85566205e-01 3.85566205e-01 1.64846092e-01
      9.58835259e-02 3.85566205e-01 1.22507378e-01 1.11379020e-01
      3.09285104e-01 2.37663791e-01 2.60486484e-01 3.09285104e-01
      2.79824436e-01 3.09285104e-01 3.09285104e-01 2.70768970e-01
      3.09285104e-01 3.09285104e-01 2.26613626e-01 3.09285104e-01
      3.37323993e-01 1.65764138e-01 3.37323993e-01 3.37323993e-01
      1.98846087e-01 3.37323993e-01 3.37323993e-01 9.74244922e-02
      3.37323993e-01 3.37323993e-01 9.90991816e-02 3.37323993e-01
      3.42286080e-01 1.55964449e-01 3.42286080e-01 3.42286080e-01
      1.23923309e-01 3.42286080e-01 3.42286080e-01 8.54082257e-02
      3.42286080e-01 3.42286080e-01 1.11020572e-01 3.42286080e-01
      3.46391082e-01 1.05027251e-01 3.46391082e-01 3.46391082e-01
      1.19805492e-01 3.46391082e-01 3.46391082e-01 8.90221968e-02
      3.46391082e-01 3.46391082e-01 5.77568710e-02 3.46391082e-01
      3.40783328e-01 1.53433546e-01 3.40783328e-01 3.40783328e-01
      2.15265885e-01 3.29395890e-01 3.40783328e-01 3.90028581e-02
      3.40783328e-01 3.40783328e-01 6.13031760e-02 3.40783328e-01
      3.36657792e-01 2.33226955e-01 2.18939245e-01 3.36657792e-01
      1.53338030e-01 2.08726853e-01 3.36657792e-01 1.93425223e-01
      3.36657792e-01 3.36657792e-01 3.31336081e-01 3.36657792e-01
      2.95742065e-01 2.55078197e-01 2.51918405e-01 2.95742065e-01
      2.95742065e-01 2.85213649e-01 2.95742065e-01 2.95742065e-01
      2.95742065e-01 2.95742065e-01 2.95742065e-01 2.95742065e-01
      2.88259089e-01 2.88259089e-01 2.88259089e-01 2.88259089e-01
      2.88259089e-01 2.88259089e-01 2.88259089e-01 2.88259089e-01
      2.88259089e-01 2.88259089e-01 2.88259089e-01 2.88259089e-01
      3.32555234e-01 1.82165712e-01 3.32555234e-01 3.32555234e-01
      1.85692355e-01 3.32555234e-01 3.32555234e-01 1.62110701e-01
      3.32555234e-01 3.32555234e-01 1.34117335e-01 3.32555234e-01
      3.35999042e-01 1.51843011e-01 3.35999042e-01 3.35999042e-01
      1.96565792e-01 3.35999042e-01 3.35999042e-01 1.14225022e-01
      3.35999042e-01 3.35999042e-01 1.36887848e-01 3.35999042e-01
      3.36703271e-01 1.42234445e-01 3.54967773e-01 2.72796959e-01
      1.05276093e-01 3.54967773e-01 3.54967773e-01 1.06586099e-01
      3.54967773e-01 3.54967773e-01 9.98955891e-02 3.54967773e-01
      2.38838151e-01 5.59391528e-02 3.61658186e-01 3.61658186e-01
      6.94411099e-02 3.61658186e-01 3.61658186e-01 8.29333067e-02
      3.61658186e-01 3.61658186e-01 9.45378989e-02 3.61658186e-01
      3.31878871e-01 1.62366435e-01 3.31878871e-01 1.96445271e-01
      2.61385977e-01 3.31878871e-01 3.31878871e-01 1.42335504e-01
      3.31878871e-01 3.31878871e-01 2.68594652e-01 3.31878871e-01
      1.46610647e-01 2.51808971e-01 3.55316132e-01 1.12253092e-01
      1.36202216e-01 2.63940901e-01 3.70451748e-01 3.31327945e-01
      3.70451748e-01 3.70451748e-01 1.60044432e-01 3.70451748e-01</_>
    <_>
      0. 6.36752769e-02 9.26918536e-03 2.86135729e-02 0. 7.73775503e-02
      1.41052818e-02 2.86135729e-02 0. 2.94195879e-02 1.53143061e-02
      2.86135729e-02 0. 3.86887752e-02 1.85383707e-02 2.86135729e-02 0.
      9.51099023e-02 2.29714587e-02 2.86135729e-02 0. 9.59159210e-02
      2.61955243e-02 2.86135729e-02 0. 5.60181215e-02 2.82105636e-02
      2.86135729e-02 0. 1.32992659e-02 2.78075561e-02 2.86135729e-02 0.
      3.78827564e-02 2.98225954e-02 2.86135729e-02 0. 1.45082902e-02
      5.07790148e-02 2.86135729e-02 5.15850298e-02 2.41804845e-03
      5.64211272e-02 2.86135729e-02 5.15850298e-02 1.16872340e-02
      6.20632395e-02 2.86135729e-02 5.15850298e-02 6.16602339e-02
      6.20632395e-02 2.86135729e-02 0. 1.37022743e-02 6.32722676e-02
      2.86135729e-02 5.15850298e-02 6.56903163e-02 6.77053556e-02
      2.86135729e-02 0. 4.39278781e-02 6.60933182e-02 2.86135729e-02 0.
      6.28692582e-02 6.68993369e-02 2.86135729e-02 5.15850298e-02
      1.93443876e-02 6.81083649e-02 2.86135729e-02 0. 6.24662489e-02
      6.97203949e-02 2.86135729e-02 5.15850298e-02 1.53143061e-02
      7.09294155e-02 2.86135729e-02 0. 3.86887752e-02 7.09294155e-02
      2.86135729e-02 5.15850298e-02 8.22136402e-02 7.05264136e-02
      2.86135729e-02 0. 8.06016102e-03 7.01234043e-02 2.86135729e-02
      5.15850298e-02 8.14076290e-02 6.97203949e-02 2.86135729e-02
      5.15850298e-02 3.98977995e-02 6.97203949e-02 2.86135729e-02 0.
      7.49595016e-02 6.93173856e-02 2.86135729e-02 5.15850298e-02
      3.74797508e-02 7.05264136e-02 2.86135729e-02 0. 7.65715316e-02
      7.05264136e-02 2.86135729e-02 5.15850298e-02 6.36752769e-02
      6.93173856e-02 2.86135729e-02 0. 4.87639755e-02 6.81083649e-02
      2.86135729e-02 0. 2.01504026e-02 6.68993369e-02 2.86135729e-02 0.
      4.31218632e-02 6.52873069e-02 2.86135729e-02 0. 6.16602339e-02
      6.36752769e-02 2.86135729e-02 0. 2.53895074e-02 6.24662489e-02
      2.86135729e-02 5.15850298e-02 9.75279510e-02 6.08542152e-02
      2.86135729e-02 0. 5.56151122e-02 5.96451908e-02 2.86135729e-02
      5.15850298e-02 8.90647843e-02 5.80331609e-02 2.86135729e-02 0.
      7.77805522e-02 5.68241365e-02 2.86135729e-02 0. 8.42286870e-02
      5.56151122e-02 2.86135729e-02 0. 5.56151122e-02 5.48090972e-02
      2.86135729e-02 0. 4.35248688e-02 5.40030785e-02 2.86135729e-02
      5.15850298e-02 2.37774756e-02 5.31970635e-02 2.86135729e-02
      5.15850298e-02 3.82857658e-02 5.23910485e-02 2.86135729e-02
      5.15850298e-02 6.04512095e-02 5.15850298e-02 2.86135729e-02 0.
      6.93173856e-02 4.99729998e-02 2.86135729e-02 0. 4.03008051e-03
      4.83609661e-02 2.86135729e-02 0. 5.23910485e-02 4.67489362e-02
      2.86135729e-02 0. 4.07038145e-02 4.55399118e-02 2.86135729e-02 0.
      8.98707956e-02 4.43308875e-02 2.86135729e-02 0. 2.90165804e-02
      4.35248688e-02 2.86135729e-02 0. 1.57173146e-02 4.27188538e-02
      2.86135729e-02 0. 4.63459268e-02 4.19128388e-02 2.86135729e-02 0.
      1.00752013e-02 3.94947901e-02 2.86135729e-02 0. 5.84361702e-02
      3.78827564e-02 2.86135729e-02 0. 1.81353632e-02 3.74797508e-02
      2.86135729e-02 0. 7.89895803e-02 3.50617021e-02 2.86135729e-02 0.
      8.50346982e-02 3.50617021e-02 2.86135729e-02 0. 1.37022743e-02
      3.46586928e-02 2.86135729e-02 0. 6.44812882e-02 3.30466591e-02
      2.86135729e-02 0. 4.83609661e-02 3.18376385e-02 2.86135729e-02 0.
      9.34978724e-02 3.10316198e-02 2.86135729e-02 0. 5.23910485e-02
      3.18376385e-02 2.86135729e-02 0. 4.99729998e-02 3.18376385e-02
      2.86135729e-02 0. 1.73293464e-02 3.02256048e-02 2.86135729e-02 0.
      7.45564923e-02 2.94195879e-02 2.86135729e-02 0. 7.61685222e-02
      2.90165804e-02 2.86135729e-02 0. 3.66737321e-02 2.82105636e-02
      2.86135729e-02 0. 2.94195879e-02 2.65985318e-02 2.86135729e-02 0.
      3.74797508e-02 2.78075561e-02 2.86135729e-02 0. 1.01558030e-01
      2.82105636e-02 2.86135729e-02 0. 6.97203949e-02 2.78075561e-02
      2.86135729e-02 0. 4.59429175e-02 2.82105636e-02 2.86135729e-02 0.
      1.77323539e-02 2.94195879e-02 2.86135729e-02 0. 3.66737321e-02
      3.06286123e-02 2.86135729e-02 0. 8.06016102e-03 3.02256048e-02
      2.86135729e-02 0. 7.17354342e-02 3.26436535e-02 2.86135729e-02 0.
      5.88391759e-02 3.42556834e-02 2.86135729e-02 0. 6.48842975e-02
      3.62707265e-02 2.86135729e-02 0. 2.82105641e-03 3.70767415e-02
      2.86135729e-02 0. 4.51369025e-02 3.82857658e-02 2.86135729e-02 0.
      7.25414511e-03 4.15098295e-02 2.86135729e-02 0. 5.23910485e-02
      4.31218632e-02 2.86135729e-02 0. 1.89413782e-02 4.35248688e-02
      2.86135729e-02 0. 3.30466591e-02 4.47338931e-02 2.86135729e-02 0.
      9.43038836e-02 4.83609661e-02 2.86135729e-02 0. 9.79309604e-02
      4.87639755e-02 2.86135729e-02 0. 6.85113715e-03 5.07790148e-02
      2.86135729e-02 0. 1.08812172e-02 5.15850298e-02 2.86135729e-02
      5.15850298e-02 1.37022743e-02 5.31970635e-02 2.86135729e-02 0.
      6.56903163e-02 5.44060878e-02 2.86135729e-02 0. 7.13324249e-02
      5.56151122e-02 2.86135729e-02 5.15850298e-02 3.98977995e-02
      5.64211272e-02 2.86135729e-02 0. 3.42556834e-02 5.84361702e-02
      2.86135729e-02 5.15850298e-02 2.05534101e-02 6.04512095e-02
      2.86135729e-02 5.15850298e-02 8.66467357e-02 6.12572245e-02
      2.86135729e-02 0. 4.63459268e-02 6.32722676e-02 2.86135729e-02 0.
      2.90165804e-02 6.48842975e-02 2.86135729e-02 5.15850298e-02
      4.83609689e-03 6.64963275e-02 2.86135729e-02 5.15850298e-02
      5.76301515e-02 6.77053556e-02 2.86135729e-02 5.15850298e-02
      4.63459268e-02 6.89143762e-02 2.86135729e-02 0. 6.97203949e-02
      7.01234043e-02 2.86135729e-02 5.15850298e-02 6.16602339e-02
      7.17354342e-02 2.86135729e-02 5.15850298e-02 1.89413782e-02
      7.25414529e-02 2.86135729e-02 0. 8.78557563e-02 7.37504736e-02
      2.86135729e-02 5.15850298e-02 1.16872340e-02 7.45564923e-02
      2.86135729e-02 5.15850298e-02 5.72271459e-02 7.53625035e-02
      2.86135729e-02 0. 3.02256048e-02 7.57655129e-02 2.86135729e-02 0.
      5.80331609e-02 7.57655129e-02 2.86135729e-02 0. 7.05264136e-02
      7.65715316e-02 2.86135729e-02 5.15850298e-02 4.27188538e-02
      7.69745409e-02 2.86135729e-02 5.15850298e-02 8.26166496e-02
      7.73775503e-02 2.86135729e-02 5.15850298e-02 1.20902415e-02
      7.81835616e-02 2.86135729e-02 0. 7.45564923e-02 7.85865709e-02
      2.86135729e-02 0. 1.28962575e-02 7.89895803e-02 2.86135729e-02
      5.15850298e-02 3.34496684e-02 7.89895803e-02 2.86135729e-02
      5.15850298e-02 4.15098295e-02 7.93925896e-02 2.86135729e-02
      5.15850298e-02 5.64211281e-03 8.01986009e-02 2.86135729e-02 0.
      3.22406436e-03 8.01986009e-02 2.86135729e-02 5.15850298e-02
      8.30196589e-02 8.01986009e-02 2.86135729e-02 0. 2.45834924e-02
      8.06016102e-02 2.86135729e-02 0. 3.78827564e-02 8.14076290e-02
      2.86135729e-02 0. 1.04782097e-02 8.18106383e-02 2.86135729e-02 0.
      3.70767415e-02 8.14076290e-02 2.86135729e-02 5.15850298e-02
      6.56903163e-02 8.14076290e-02 2.86135729e-02 5.15850298e-02
      2.74045486e-02 8.22136402e-02 2.86135729e-02 0. 1.41052818e-02
      8.18106383e-02 2.86135729e-02 5.15850298e-02 4.63459268e-02
      8.22136402e-02 2.86135729e-02 0. 6.85113668e-02 8.26166496e-02
      2.86135729e-02 2.90932328e-01 2.90932328e-01 2.90932328e-01
      2.56972909e-01 2.90932328e-01 2.90932328e-01 2.90932328e-01
      2.90932328e-01 2.90932328e-01 2.90932328e-01 2.90932328e-01
      2.90932328e-01 3.31435710e-01 1.82114020e-01 2.05268711e-01
      3.31435710e-01 1.22773916e-01 3.31435710e-01 3.31435710e-01
      3.10495049e-01 3.31435710e-01 3.31435710e-01 2.02384785e-01
      3.31435710e-01 3.55388254e-01 2.65453402e-02 3.28481466e-01
      3.55388254e-01 1.58922635e-02 3.55388254e-01 3.55388254e-01
      5.04475571e-02 3.55388254e-01 3.55388254e-01 3.06829289e-02
      3.55388254e-01 3.52370143e-01 1.59283411e-02 3.52370143e-01
      3.52370143e-01 2.19611693e-02 3.52370143e-01 3.52370143e-01
      3.21037769e-02 3.52370143e-01 3.52370143e-01 3.73512246e-02
      3.52370143e-01 3.51954907e-01 3.06903515e-02 3.51954907e-01
      3.51954907e-01 4.29833457e-02 3.51954907e-01 3.51954907e-01
      3.39964628e-02 3.51954907e-01 3.51954907e-01 3.94974053e-02
      3.51954907e-01 3.14889163e-01 5.57445623e-02 3.14889163e-01
      3.14889163e-01 3.14889163e-01 3.14889163e-01 3.14889163e-01
      4.68451530e-02 3.14889163e-01 3.14889163e-01 3.14889163e-01
      3.14889163e-01 3.16880286e-01 3.16880286e-01 3.16880286e-01
      3.16880286e-01 3.16880286e-01 3.16880286e-01 3.16880286e-01
      3.16880286e-01 2.79803365e-01 1.05267100e-01 3.16880286e-01
      6.11941367e-02 3.20313245e-01 1.55168280e-01 3.10393095e-01
      3.20313245e-01 2.49890298e-01 3.20313245e-01 3.20313245e-01
      2.01020658e-01 3.20313245e-01 3.20313245e-01 2.35201836e-01
      3.20313245e-01 3.20420653e-01 1.39010966e-01 3.48667145e-01
      3.48667145e-01 7.08028078e-02 3.48667145e-01 3.48667145e-01
      1.21334508e-01 3.48667145e-01 3.48667145e-01 6.16957881e-02
      3.48667145e-01 3.52317601e-01 2.26106122e-02 3.52317601e-01
      3.52317601e-01 2.43054833e-02 3.52317601e-01 3.52317601e-01
      2.04158928e-02 3.52317601e-01 3.52317601e-01 4.40396480e-02
      3.52317601e-01 3.52308273e-01 2.51967106e-02 3.52308273e-01
      3.52308273e-01 3.05062402e-02 3.52308273e-01 3.52308273e-01
      3.51405479e-02 3.52308273e-01 3.52308273e-01 2.66586896e-02
      3.52308273e-01 3.55895877e-01 2.44542062e-02 3.55895877e-01
      3.55895877e-01 2.44044792e-02 3.55895877e-01 3.55895877e-01
      2.37819105e-02 3.55895877e-01 3.27808946e-01 2.43519135e-02
      3.55895877e-01 3.48895490e-01 1.84067655e-02 3.48895490e-01
      3.48895490e-01 1.56611875e-01 3.48895490e-01 3.44457269e-01
      1.23193339e-02 3.48895490e-01 3.48895490e-01 2.73683891e-02
      3.48895490e-01 3.35815996e-01 2.78009027e-01 3.35815996e-01
      1.33040622e-01 3.35815996e-01 1.11357994e-01 3.35815996e-01
      1.40323609e-01 3.35815996e-01 2.83121705e-01 3.35815996e-01
      3.35815996e-01 3.05652201e-01 2.84994692e-01 3.05652201e-01
      3.05652201e-01 3.05652201e-01 3.05652201e-01 3.05652201e-01
      2.25496382e-01 3.05652201e-01 2.47312203e-01 2.37330616e-01
      3.05652201e-01 3.01256239e-01 1.71322092e-01 3.62206846e-01
      3.62206846e-01 8.21098685e-02 3.62206846e-01 2.67885864e-01
      9.67844278e-02 3.62206846e-01 3.62206846e-01 3.52111422e-02
      3.62206846e-01 3.51392597e-01 3.29626873e-02 3.51392597e-01
      3.51392597e-01 7.33092129e-02 3.51392597e-01 3.51392597e-01
      2.18094680e-02 3.51392597e-01 3.51392597e-01 4.16970737e-02
      3.51392597e-01 3.52557123e-01 3.84547450e-02 3.52557123e-01
      3.52557123e-01 1.42922113e-02 3.52557123e-01 3.52557123e-01
      1.91648770e-02 3.52557123e-01 3.52557123e-01 7.41732772e-03
      3.52557123e-01 2.95238465e-01 1.32650565e-02 3.77591997e-01
      2.28623703e-01 2.23615598e-02 3.77591997e-01 3.77591997e-01
      8.05665553e-03 3.77591997e-01 3.77591997e-01 2.44556312e-02
      3.77591997e-01 2.02968806e-01 1.51197985e-02 3.87347430e-01
      2.18337864e-01 4.59307842e-02 3.87347430e-01 3.87347430e-01
      2.25593764e-02 3.87347430e-01 3.87347430e-01 6.47090226e-02
      3.87347430e-01 1.44994572e-01 1.48052678e-01 3.19276810e-01
      1.94903880e-01 3.41992468e-01 3.41992468e-01 3.41992468e-01
      1.81950599e-01 3.41992468e-01 3.41992468e-01 2.80812472e-01
      3.41992468e-01 2.95892686e-01 2.32142970e-01 3.19834799e-01
      2.21006036e-01 1.44342542e-01 3.19834799e-01 3.19834799e-01
      3.19834799e-01 3.19834799e-01 3.19834799e-01 2.63861328e-01
      3.19834799e-01 3.50967616e-01 4.60497700e-02 3.50967616e-01
      3.50967616e-01 3.30491886e-02 3.50967616e-01 3.50967616e-01
      7.12508559e-02 3.50967616e-01 3.50967616e-01 5.27043939e-02
      3.50967616e-01 3.40228528e-01 2.29983106e-02 3.54460776e-01
      3.54460776e-01 1.02311661e-02 3.54460776e-01 3.54460776e-01
      2.26905663e-02 3.54460776e-01 3.54460776e-01 7.59407552e-03
      3.54460776e-01 3.52929056e-01 7.16949406e-04 3.52929056e-01
      3.52929056e-01 6.61275815e-04 3.52929056e-01 3.52929056e-01
      7.03548954e-04 3.52929056e-01 3.52929056e-01 1.05100975e-03
      3.52929056e-01 3.52926344e-01 2.39802961e-04 3.52926344e-01
      3.52926344e-01 2.04233523e-03 3.52926344e-01 3.52926344e-01
      1.75612059e-03 3.52926344e-01 3.52926344e-01 3.24251316e-03
      3.52926344e-01 3.49916041e-01 3.38134356e-03 3.49916041e-01
      3.49916041e-01 4.19414602e-02 3.49916041e-01 3.49916041e-01
      9.62832756e-03 3.49916041e-01 3.49916041e-01 1.22926004e-01
      3.49916041e-01 3.48849028e-01 6.42846525e-02 3.48849028e-01
      3.48849028e-01 3.93317491e-02 3.48849028e-01 3.48849028e-01
      1.26018509e-01 3.48849028e-01 3.48849028e-01 3.72737683e-02
      3.48849028e-01 2.91427493e-01 2.91427493e-01 2.91427493e-01
      2.66465575e-01 2.77099222e-01 2.91427493e-01 2.91427493e-01
      2.91427493e-01 2.91427493e-01 2.91427493e-01 2.91427493e-01
      2.91427493e-01 3.34219664e-01 1.74388885e-01 2.15300262e-01
      3.34219664e-01 1.14599362e-01 3.34219664e-01 3.34219664e-01
      2.98004180e-01 3.34219664e-01 3.34219664e-01 1.89831212e-01
      3.34219664e-01 3.53814095e-01 2.32926905e-02 3.41281742e-01
      3.53814095e-01 1.24007575e-02 3.53814095e-01 3.53814095e-01
      4.63325977e-02 3.53814095e-01 3.53814095e-01 2.92912349e-02
      3.53814095e-01 3.52411658e-01 1.25104878e-02 3.52411658e-01
      3.52411658e-01 1.34261139e-02 3.52411658e-01 3.52411658e-01
      3.20151038e-02 3.52411658e-01 3.52411658e-01 3.95668447e-02
      3.52411658e-01 3.52036923e-01 2.18078047e-02 3.52036923e-01
      3.52036923e-01 3.82470377e-02 3.52036923e-01 3.52036923e-01
      3.65925394e-02 3.52036923e-01 3.52036923e-01 4.20143977e-02
      3.52036923e-01 3.14753413e-01 6.05232306e-02 3.14753413e-01
      3.14753413e-01 3.14753413e-01 3.14753413e-01 3.14753413e-01
      4.99480218e-02 3.14753413e-01 3.14753413e-01 3.14753413e-01
      3.14753413e-01 3.20481390e-01 3.20481390e-01 3.20481390e-01
      3.20481390e-01 3.20481390e-01 3.20481390e-01 3.20481390e-01
      3.20481390e-01 2.40693197e-01 1.13856420e-01 3.20481390e-01
      3.90679911e-02 3.20437819e-01 1.63386509e-01 3.11738014e-01
      3.20437819e-01 2.43238553e-01 3.20437819e-01 3.20437819e-01
      2.06647396e-01 3.20437819e-01 3.20437819e-01 2.28673249e-01
      3.20437819e-01 3.22797894e-01 1.28155231e-01 3.49594563e-01
      3.49594563e-01 6.37433305e-02 3.49594563e-01 3.49594563e-01
      1.13359861e-01 3.49594563e-01 3.49594563e-01 5.87947555e-02
      3.49594563e-01 3.52524966e-01 1.88022368e-02 3.52524966e-01
      3.52524966e-01 2.09462382e-02 3.52524966e-01 3.52524966e-01
      1.76098403e-02 3.52524966e-01 3.52524966e-01 3.44186425e-02
      3.52524966e-01 3.52392763e-01 2.42790915e-02 3.52392763e-01
      3.52392763e-01 2.97604371e-02 3.52392763e-01 3.52392763e-01
      2.99366675e-02 3.52392763e-01 3.52392763e-01 2.57423259e-02
      3.52392763e-01 3.55668932e-01 2.49043033e-02 3.55668932e-01
      3.55668932e-01 2.68607885e-02 3.55668932e-01 3.55668932e-01
      2.18725875e-02 3.55668932e-01 3.29346538e-01 2.55806241e-02
      3.55668932e-01 3.48270744e-01 2.02072170e-02 3.48270744e-01
      3.48270744e-01 1.57475978e-01 3.48270744e-01 3.48242074e-01
      1.33893862e-02 3.48270744e-01 3.48270744e-01 2.85277553e-02
      3.48270744e-01 3.59250873e-01 2.55226731e-01 3.00334275e-01
      9.32876244e-02 3.59250873e-01 1.22973226e-01 3.10269147e-01
      1.35539398e-01 3.59250873e-01 2.39374936e-01 3.59250873e-01
      3.59250873e-01 3.04789305e-01 2.87119210e-01 3.04789305e-01
      3.04789305e-01 3.04789305e-01 3.04789305e-01 3.04789305e-01
      2.30325922e-01 3.04789305e-01 2.43504554e-01 2.42899567e-01
      3.04789305e-01 3.10110629e-01 1.66756272e-01 3.61700207e-01
      3.61700207e-01 7.85864368e-02 3.61700207e-01 2.63601810e-01
      9.97762382e-02 3.61700207e-01 3.61700207e-01 4.27878201e-02
      3.61700207e-01 3.51555139e-01 3.10793091e-02 3.51555139e-01
      3.51555139e-01 5.86877614e-02 3.51555139e-01 3.51555139e-01
      3.24181020e-02 3.51555139e-01 3.51555139e-01 4.79421951e-02
      3.51555139e-01 3.52622807e-01 2.97950879e-02 3.52622807e-01
      3.52622807e-01 1.63219757e-02 3.52622807e-01 3.52622807e-01
      2.16316450e-02 3.52622807e-01 3.52622807e-01 1.05878105e-02
      3.52622807e-01 2.97261953e-01 1.25211040e-02 3.76661628e-01
      2.35357389e-01 2.25692261e-02 3.76661628e-01 3.76661628e-01
      8.04750714e-03 3.76661628e-01 3.76661628e-01 2.24610157e-02
      3.76661628e-01 2.05751196e-01 1.39604090e-02 3.87266517e-01
      2.14459762e-01 4.76568379e-02 3.87266517e-01 3.87266517e-01
      1.81198344e-02 3.87266517e-01 3.87266517e-01 7.18197525e-02
      3.87266517e-01 1.39376596e-01 1.48193300e-01 3.13771755e-01
      1.73975483e-01 3.37400287e-01 3.37400287e-01 3.37400287e-01
      1.90074489e-01 3.37400287e-01 3.37400287e-01 3.27657759e-01
      3.37400287e-01</_></uncompressed_support_vectors>
  <decision_functions>
    <_>
      <sv_count>1</sv_count>
      <rho>-9.1593532587056544e-04</rho>
      <alpha>
        1.</alpha>
      <index>
        0</index></_></decision_functions></opencv_ml_svm>
</opencv_storage>
